digraph Tree {
node [shape=box] ;
0 [label="X[1] <= 0.413\ngini = 0.399\nsamples = 904\nvalue = [655, 249]"] ;
1 [label="gini = 0.0\nsamples = 650\nvalue = [650, 0]"] ;
0 -> 1 [labeldistance=2.5, labelangle=45, headlabel="True"] ;
2 [label="X[0] <= -0.347\ngini = 0.039\nsamples = 254\nvalue = [5, 249]"] ;
0 -> 2 [labeldistance=2.5, labelangle=-45, headlabel="False"] ;
3 [label="gini = 0.0\nsamples = 5\nvalue = [5, 0]"] ;
2 -> 3 ;
4 [label="gini = 0.0\nsamples = 249\nvalue = [0, 249]"] ;
2 -> 4 ;
}